~o
<STREAMINFO> 1 26
<VECSIZE> 26<NULLD><MFCC_E_D><DIAGC>
~h "C"
<BEGINHMM>
<NUMSTATES> 5
<STATE> 2
<MEAN> 26
 -1.577109e+01 -3.818407e+00 -2.107743e+00 -5.124819e+00 -4.188935e+00 -3.475006e+00 -2.384563e+00 -1.462968e+00 -5.856627e-01 -1.748341e+00 -2.845641e+00 1.907530e-02 3.315889e-01 -2.401107e+00 -1.493577e-01 -9.814166e-01 -2.740047e-01 1.337036e+00 4.788698e-01 7.095976e-01 3.530492e-02 3.372737e-01 1.098021e-02 5.153531e-01 6.318755e-02 -2.702383e-02
<VARIANCE> 26
 3.449469e+01 4.372796e+01 3.733494e+01 3.598421e+01 3.008846e+01 3.339118e+01 2.441566e+01 2.690301e+01 1.588755e+01 1.905491e+01 1.896303e+01 1.456543e+01 6.631204e-02 6.365658e+00 5.368089e+00 4.868901e+00 6.023030e+00 5.608728e+00 4.200962e+00 4.803346e+00 3.952320e+00 3.351745e+00 2.133843e+00 2.349826e+00 1.693968e+00 5.000000e-02
<GCONST> 9.769332e+01
<STATE> 3
<MEAN> 26
 -2.227603e+01 -3.946930e+00 -6.174394e+00 -8.907293e+00 -2.505178e+00 -5.567380e+00 -7.253539e-02 -1.208401e+00 -3.573706e-01 -1.466491e+00 -2.076235e+00 1.224677e-01 4.719527e-01 1.182962e-01 -3.862727e-01 -1.777099e-01 -2.589676e-01 -2.145926e-01 -6.768826e-02 6.723772e-02 5.245825e-02 1.447626e-01 -1.674361e-02 -8.423558e-02 8.544778e-03 5.834459e-03
<VARIANCE> 26
 3.500256e+01 2.499593e+01 3.137194e+01 3.059615e+01 3.285133e+01 3.357862e+01 2.013857e+01 1.763186e+01 1.676209e+01 1.479728e+01 1.175020e+01 1.054482e+01 6.339784e-02 2.917173e+00 1.360044e+00 1.830446e+00 2.271984e+00 1.514030e+00 1.760397e+00 1.736944e+00 1.480633e+00 1.469443e+00 1.912392e+00 1.521920e+00 1.112312e+00 5.000000e-02
<GCONST> 8.517087e+01
<STATE> 4
<MEAN> 26
 -1.164700e+01 -7.445798e+00 -2.734972e+00 -6.472405e+00 -7.396446e+00 -4.658927e+00 -2.859893e+00 4.818892e-01 -1.068738e+00 -1.876161e+00 -3.620164e+00 -2.148250e-02 4.709632e-01 2.982361e+00 -6.316150e-01 7.998345e-01 -1.865820e-01 -1.630462e+00 8.974614e-02 -1.702964e+00 4.430082e-01 -5.722623e-01 7.940983e-02 2.107073e-02 -4.991321e-01 5.115080e-02
<VARIANCE> 26
 5.142453e+01 3.739941e+01 5.740422e+01 3.904333e+01 5.751495e+01 4.305625e+01 4.284158e+01 3.554200e+01 3.187131e+01 2.476945e+01 2.051721e+01 1.489354e+01 5.069818e-02 5.502810e+00 4.125624e+00 4.962984e+00 4.793044e+00 4.746665e+00 5.825155e+00 5.090994e+00 3.499948e+00 3.232835e+00 2.475410e+00 2.605457e+00 2.147289e+00 5.000000e-02
<GCONST> 1.009131e+02
<TRANSP> 5
 0.000000e+00 1.000000e+00 0.000000e+00 0.000000e+00 0.000000e+00
 0.000000e+00 4.403984e-01 5.596017e-01 0.000000e+00 0.000000e+00
 0.000000e+00 0.000000e+00 6.917991e-01 3.082009e-01 0.000000e+00
 0.000000e+00 0.000000e+00 0.000000e+00 5.669231e-01 4.330768e-01
 0.000000e+00 0.000000e+00 0.000000e+00 0.000000e+00 0.000000e+00
<ENDHMM>
