~o
<STREAMINFO> 1 26
<VECSIZE> 26<NULLD><MFCC_E_D><DIAGC>
~h "L"
<BEGINHMM>
<NUMSTATES> 5
<STATE> 2
<MEAN> 26
 2.673741e+00 -3.034113e+00 -9.772377e+00 -1.815536e+01 -1.285940e+01 5.267540e+00 -7.244331e+00 -2.130467e+00 -5.271262e+00 -2.084639e-01 -1.275166e-01 -1.620104e+00 7.744783e-01 6.372167e-01 -3.924475e-01 -3.730090e-01 -8.219585e-01 -1.872122e-01 6.576306e-01 -4.837413e-01 2.808725e-01 6.152343e-02 -2.876947e-01 2.885732e-01 3.148460e-02 2.431332e-02
<VARIANCE> 26
 9.058738e+00 3.992001e+01 4.691982e+01 5.782885e+01 3.838255e+01 6.260958e+01 3.271700e+01 2.278506e+01 3.516116e+01 2.804044e+01 2.082660e+01 1.452832e+01 5.000000e-02 1.312408e+00 2.370636e+00 2.596732e+00 2.193274e+00 2.964471e+00 2.841570e+00 2.284286e+00 2.035930e+00 2.791550e+00 2.361096e+00 1.855614e+00 1.015324e+00 5.000000e-02
<GCONST> 9.165620e+01
<STATE> 3
<MEAN> 26
 3.090313e+00 -8.779304e+00 -1.080491e+01 -1.201238e+01 -1.101215e+01 1.464990e+00 -1.280617e+01 3.474698e+00 -1.088897e+00 -2.098867e+00 -5.308810e-01 -8.926365e-01 8.076927e-01 -1.734168e-01 -8.421747e-02 4.522000e-02 3.575377e-01 -3.576686e-01 3.429558e-02 2.461941e-01 -2.631946e-01 4.915129e-04 5.160694e-01 3.827334e-03 -3.311115e-01 -1.503020e-03
<VARIANCE> 26
 7.850325e+00 2.988321e+01 7.149165e+01 8.145974e+01 3.668517e+01 1.421277e+02 3.713592e+01 4.361304e+01 3.883908e+01 3.711929e+01 1.695163e+01 1.498735e+01 5.000000e-02 4.774251e-01 1.654383e+00 1.457576e+00 2.184933e+00 3.143950e+00 2.633804e+00 2.034868e+00 2.149653e+00 1.789678e+00 2.267995e+00 1.442463e+00 1.412984e+00 5.000000e-02
<GCONST> 9.130611e+01
<STATE> 4
<MEAN> 26
 -1.977694e-01 -6.152165e+00 -6.838119e+00 -1.111973e+01 -1.073207e+01 9.212004e-02 -9.474418e+00 -5.862500e-01 -2.516184e+00 1.853329e+00 -1.002379e+00 -2.806251e+00 7.117105e-01 -1.723629e+00 5.252693e-01 7.936912e-01 1.429958e+00 1.173492e+00 -1.439091e+00 9.628433e-01 -4.965853e-01 4.617800e-01 3.431081e-01 -3.610978e-01 -5.149619e-02 -4.327253e-02
<VARIANCE> 26
 1.911891e+01 4.202496e+01 8.671655e+01 6.073717e+01 7.886537e+01 7.458178e+01 4.611404e+01 5.376324e+01 4.571078e+01 4.054321e+01 3.232858e+01 2.024649e+01 5.000000e-02 3.942037e+00 5.067711e+00 1.811441e+00 4.482361e+00 6.248229e+00 7.554224e+00 4.462169e+00 3.214134e+00 3.616090e+00 2.320576e+00 3.217070e+00 3.709854e+00 5.000000e-02
<GCONST> 1.037686e+02
<TRANSP> 5
 0.000000e+00 1.000000e+00 0.000000e+00 0.000000e+00 0.000000e+00
 0.000000e+00 7.090050e-01 2.909950e-01 0.000000e+00 0.000000e+00
 0.000000e+00 0.000000e+00 6.415632e-01 3.584368e-01 0.000000e+00
 0.000000e+00 0.000000e+00 0.000000e+00 3.451973e-01 6.548027e-01
 0.000000e+00 0.000000e+00 0.000000e+00 0.000000e+00 0.000000e+00
<ENDHMM>
