~o
<STREAMINFO> 1 26
<VECSIZE> 26<NULLD><MFCC_E_D><DIAGC>
~h "N"
<BEGINHMM>
<NUMSTATES> 5
<STATE> 2
<MEAN> 26
 -3.140713e+00 -4.410238e+00 2.739355e+00 -2.100556e-01 -1.121952e+01 1.288881e+00 -9.126453e+00 -8.150328e+00 -5.770628e+00 4.444194e-01 -5.391232e+00 8.345865e-02 4.519688e-01 -1.721561e-01 7.216626e-01 -6.745867e-02 7.374081e-01 1.353997e-01 5.067893e-01 1.824975e-01 -2.088742e+00 -8.617206e-01 2.588810e-01 2.026296e-01 7.602358e-01 -1.611973e-02
<VARIANCE> 26
 3.341521e+00 1.284356e+01 1.380733e+01 3.149519e+01 2.508006e+01 1.977897e+01 2.237022e+01 3.645123e+01 2.666295e+01 2.455513e+01 1.320685e+01 1.633285e+01 5.000000e-02 1.411960e+00 1.517121e+00 1.157370e+00 2.544692e+00 2.480423e+00 2.043777e+00 3.451909e+00 2.954308e+00 3.291785e+00 2.740140e+00 2.339382e+00 1.748798e+00 5.000000e-02
<GCONST> 8.579177e+01
<STATE> 3
<MEAN> 26
 -4.078485e+00 -9.255669e-01 9.957151e-01 -1.970030e+00 -1.110293e+01 1.415026e+00 -6.633652e+00 -9.232433e+00 -5.526336e+00 -8.220841e-01 -6.096280e+00 3.696461e+00 4.233342e-01 -7.289920e-01 3.741641e-01 -1.337579e+00 -8.320481e-01 7.319344e-01 -7.327030e-01 1.100930e+00 1.534950e+00 1.233851e+00 -1.087672e+00 1.068462e-01 -1.676038e-01 -2.402875e-03
<VARIANCE> 26
 3.784149e+00 3.668287e+01 1.929128e+01 2.346523e+01 2.297264e+01 1.579717e+01 3.393221e+01 4.105215e+01 2.585827e+01 1.516490e+01 1.927466e+01 1.499911e+01 5.000000e-02 3.771373e+00 2.872522e+00 2.479625e+00 4.743702e+00 4.290452e+00 2.214229e+00 2.470355e+00 3.310857e+00 1.895566e+00 1.219691e+00 1.226103e+00 1.469808e+00 5.000000e-02
<GCONST> 8.824091e+01
<STATE> 4
<MEAN> 26
 -4.453308e+00 -3.746396e+00 -4.469169e+00 -4.734354e+00 -8.362289e+00 2.410717e-01 -5.400860e+00 -4.203646e+00 -2.100653e+00 -2.402138e+00 -4.518473e+00 -1.897757e-01 4.743010e-01 -4.047697e-01 -1.428585e+00 -2.889876e+00 -2.616481e+00 9.007620e-01 -1.513747e-01 3.111218e-01 2.359412e+00 2.577105e+00 -8.493532e-01 2.174459e-01 -1.304630e+00 4.414375e-02
<VARIANCE> 26
 4.144101e+01 3.015275e+01 5.349201e+01 5.671392e+01 2.147732e+01 1.646236e+01 2.004029e+01 3.861422e+01 2.211352e+01 1.654750e+01 2.337645e+01 7.529866e+00 5.000000e-02 6.968261e+00 3.643458e+00 4.540937e+00 3.349733e+00 4.855138e+00 5.498381e+00 3.212961e+00 7.176888e+00 3.756330e+00 1.621989e+00 1.941977e+00 1.586861e+00 5.000000e-02
<GCONST> 9.584530e+01
<TRANSP> 5
 0.000000e+00 1.000000e+00 0.000000e+00 0.000000e+00 0.000000e+00
 0.000000e+00 6.857096e-01 3.142904e-01 0.000000e+00 0.000000e+00
 0.000000e+00 0.000000e+00 4.127872e-01 5.872128e-01 0.000000e+00
 0.000000e+00 0.000000e+00 0.000000e+00 2.790984e-01 7.209016e-01
 0.000000e+00 0.000000e+00 0.000000e+00 0.000000e+00 0.000000e+00
<ENDHMM>
