~o
<STREAMINFO> 1 26
<VECSIZE> 26<NULLD><MFCC_E_D><DIAGC>
~h "S"
<BEGINHMM>
<NUMSTATES> 5
<STATE> 2
<MEAN> 26
 -1.240932e+01 -7.544677e+00 -1.012921e+01 -9.039576e+00 -1.799334e+00 1.535002e+00 -3.375653e+00 2.291122e+00 2.906310e+00 1.518967e-01 -6.493731e+00 -3.415308e+00 1.603888e-01 -1.926028e-01 -1.117429e-01 -4.055253e-01 2.034171e-01 3.305626e-01 9.875230e-01 2.915142e-01 -3.660993e-02 -5.110519e-01 7.421737e-02 7.843745e-02 3.100001e-01 -2.872186e-02
<VARIANCE> 26
 2.929796e+01 3.284450e+01 2.112745e+01 3.935846e+01 2.431301e+01 2.691324e+01 3.125835e+01 2.439623e+01 1.370957e+01 1.359897e+01 2.925651e+01 6.042898e+01 5.000000e-02 2.770192e+00 2.253649e+00 1.474741e+00 1.738345e+00 1.271163e+00 2.809168e+00 1.601585e+00 3.253798e+00 9.711105e-01 1.569380e+00 2.326949e+00 2.640901e+00 5.000000e-02
<GCONST> 8.914548e+01
<STATE> 3
<MEAN> 26
 -1.659990e+01 -1.967811e+00 -7.260174e+00 -5.602461e+00 -2.639084e+00 7.469384e-02 -7.468999e-01 1.599865e+00 -1.370594e+00 -5.589579e-01 -1.805892e+00 -3.641286e-01 -6.862830e-02 9.408069e-02 2.372974e-01 1.755889e-01 1.145916e-01 -3.285935e-01 1.068310e-01 2.935204e-02 -9.425322e-02 -1.198433e-01 -1.175495e-01 3.115351e-02 -1.271859e-01 -4.864738e-03
<VARIANCE> 26
 7.938813e+00 5.245560e+00 1.073216e+01 1.909580e+01 1.618159e+01 1.220612e+01 1.329676e+01 1.683246e+01 1.201222e+01 1.448673e+01 1.811390e+01 1.139212e+01 5.000000e-02 4.943258e-01 5.079342e-01 8.955257e-01 1.444460e+00 1.213269e+00 1.111780e+00 1.293914e+00 1.944392e+00 1.370296e+00 1.446936e+00 1.845510e+00 1.376689e+00 5.000000e-02
<GCONST> 7.374483e+01
<STATE> 4
<MEAN> 26
 -1.271789e+01 -1.219327e+00 -5.606925e-01 -9.714256e+00 -9.074253e+00 2.139792e-01 -2.146322e+00 1.709745e+00 -5.679397e+00 -2.297153e+00 -2.483090e+00 -2.023915e+00 1.738833e-01 4.452261e-01 -2.658005e-01 6.713911e-01 -5.218711e-01 -3.272507e-01 5.696411e-02 -5.765739e-01 1.338929e-02 -3.561698e-01 -4.762854e-01 -1.830368e-01 -1.986761e-01 6.123850e-02
<VARIANCE> 26
 2.453690e+01 2.306800e+01 6.541529e+01 2.070996e+01 3.686682e+01 2.458267e+01 3.207549e+01 5.532692e+01 5.035988e+01 1.658675e+01 1.195643e+01 2.169581e+01 7.082133e-02 3.879430e+00 2.429114e+00 1.995716e+00 2.046317e+00 2.894289e+00 1.240341e+00 2.322688e+00 2.978412e+00 2.545995e+00 1.302792e+00 1.523743e+00 1.836037e+00 5.000000e-02
<GCONST> 9.135869e+01
<TRANSP> 5
 0.000000e+00 1.000000e+00 0.000000e+00 0.000000e+00 0.000000e+00
 0.000000e+00 6.013827e-01 3.986173e-01 0.000000e+00 0.000000e+00
 0.000000e+00 0.000000e+00 8.855100e-01 1.144900e-01 0.000000e+00
 0.000000e+00 0.000000e+00 0.000000e+00 6.837273e-01 3.162727e-01
 0.000000e+00 0.000000e+00 0.000000e+00 0.000000e+00 0.000000e+00
<ENDHMM>
