~o
<STREAMINFO> 1 26
<VECSIZE> 26<NULLD><MFCC_E_D><DIAGC>
~h "V"
<BEGINHMM>
<NUMSTATES> 5
<STATE> 2
<MEAN> 26
 5.095357e-01 -9.019624e+00 -4.083091e+00 -1.080603e+01 -1.284333e+01 1.069916e+00 -1.243023e+01 -1.481798e+00 -2.481336e+00 1.579989e+00 -1.508661e+00 -4.953978e+00 7.835423e-01 6.301455e-01 -7.592815e-01 -3.956866e-02 -8.551300e-02 -4.102487e-01 2.827518e-01 -6.791308e-01 1.890569e-01 4.088160e-01 2.310545e-01 -4.009577e-01 -4.256797e-01 2.163054e-02
<VARIANCE> 26
 1.445202e+01 3.092772e+01 1.161920e+02 3.128454e+01 6.026067e+01 9.149416e+01 5.503070e+01 3.508217e+01 4.597506e+01 3.349268e+01 2.923615e+01 2.751090e+01 5.000000e-02 1.380825e+00 1.685714e+00 2.227009e+00 1.507067e+00 2.945408e+00 2.770835e+00 2.255742e+00 2.135819e+00 2.092687e+00 1.498872e+00 1.947752e+00 1.601137e+00 5.000000e-02
<GCONST> 9.431211e+01
<STATE> 3
<MEAN> 26
 1.468095e+00 -1.545483e+01 -6.257424e+00 -8.685668e+00 -1.465808e+01 1.377672e+00 -8.750353e+00 5.129371e+00 1.010541e+00 -1.153751e+00 -7.239991e+00 -6.594557e+00 8.394174e-01 -3.599065e-01 3.624211e-01 8.879552e-01 2.266810e-01 -2.435613e-01 -9.200407e-01 3.912629e-01 4.183520e-01 -3.205885e-01 -1.100462e-01 -1.731225e-01 5.804189e-01 -1.326284e-02
<VARIANCE> 26
 9.460427e+00 3.078957e+01 6.785541e+01 1.615709e+01 3.650279e+01 5.932273e+01 2.960570e+01 3.444060e+01 3.499081e+01 1.898982e+01 2.565275e+01 2.041028e+01 5.000000e-02 6.009644e-01 1.755280e+00 3.006001e+00 1.596693e+00 2.508015e+00 2.728857e+00 2.229390e+00 2.952684e+00 1.873886e+00 1.353749e+00 1.973536e+00 1.648067e+00 5.000000e-02
<GCONST> 8.937473e+01
<STATE> 4
<MEAN> 26
 -3.646017e+00 -6.451825e+00 2.918007e+00 -8.290106e+00 -1.411136e+01 -5.392293e+00 -6.730398e+00 6.071860e-01 -4.352803e+00 1.851762e-01 -4.525805e+00 -1.178649e+00 6.555399e-01 -1.676119e+00 2.130421e+00 -6.261714e-01 9.520727e-01 2.064796e+00 1.823338e-01 1.398311e+00 -1.336754e+00 -7.425018e-03 -2.258490e-02 7.254563e-02 4.114704e-01 -6.751113e-02
<VARIANCE> 26
 1.856184e+01 3.265402e+01 6.835257e+01 2.958693e+01 6.121030e+01 5.519297e+01 4.664238e+01 4.257516e+01 5.458909e+01 3.687105e+01 2.825792e+01 1.913262e+01 5.000000e-02 3.330899e+00 2.770310e+00 5.469846e+00 3.871086e+00 6.300400e+00 3.557527e+00 4.500481e+00 3.533694e+00 6.137136e+00 3.671830e+00 2.312634e+00 2.063436e+00 5.000000e-02
<GCONST> 1.012604e+02
<TRANSP> 5
 0.000000e+00 1.000000e+00 0.000000e+00 0.000000e+00 0.000000e+00
 0.000000e+00 6.546580e-01 3.453420e-01 0.000000e+00 0.000000e+00
 0.000000e+00 0.000000e+00 7.150559e-01 2.849442e-01 0.000000e+00
 0.000000e+00 0.000000e+00 0.000000e+00 5.769939e-01 4.230061e-01
 0.000000e+00 0.000000e+00 0.000000e+00 0.000000e+00 0.000000e+00
<ENDHMM>
