~o
<STREAMINFO> 1 26
<VECSIZE> 26<NULLD><MFCC_E_D><DIAGC>
~h "C"
<BEGINHMM>
<NUMSTATES> 5
<STATE> 2
<MEAN> 26
 -1.375406e+01 -3.862781e+00 -1.929328e+00 -4.566518e+00 -5.211408e+00 -3.982249e+00 -2.750195e+00 -1.415394e+00 -1.330013e+00 -1.118206e+00 -3.098515e+00 -4.906757e-01 3.413759e-01 -2.155816e+00 9.256238e-02 -1.164917e+00 -2.919557e-01 1.594886e+00 5.282198e-01 5.917801e-01 -1.450315e-01 3.355480e-01 -5.357189e-02 1.823382e-01 4.382601e-02 -3.549445e-02
<VARIANCE> 26
 4.298646e+01 5.365313e+01 3.680456e+01 4.614628e+01 3.986415e+01 3.569177e+01 3.251479e+01 3.446539e+01 2.385496e+01 1.945030e+01 2.233380e+01 1.571767e+01 5.651598e-02 5.849432e+00 5.926059e+00 4.347322e+00 6.321062e+00 6.334527e+00 3.890672e+00 4.813649e+00 4.321614e+00 3.423366e+00 2.346624e+00 2.408566e+00 1.841311e+00 5.000000e-02
<GCONST> 1.000514e+02
<STATE> 3
<MEAN> 26
 -2.176261e+01 -4.235110e+00 -6.429994e+00 -8.805422e+00 -2.157668e+00 -5.123927e+00 -4.998663e-01 -1.407583e+00 -1.914860e-01 -1.530424e+00 -2.012525e+00 6.359234e-02 4.506476e-01 1.087679e-01 -4.200835e-01 -1.572841e-01 -3.343906e-01 -2.258045e-01 -5.091440e-02 -1.217750e-02 6.403068e-02 8.030510e-02 -9.689656e-02 -7.941891e-02 -1.140735e-02 9.889367e-03
<VARIANCE> 26
 3.564429e+01 2.347337e+01 2.895713e+01 3.164074e+01 2.656087e+01 3.550387e+01 2.100569e+01 1.647811e+01 1.714832e+01 1.559297e+01 1.191992e+01 1.092140e+01 6.834874e-02 3.229752e+00 1.761075e+00 2.025386e+00 2.594889e+00 1.678681e+00 2.077109e+00 1.964418e+00 1.789029e+00 1.770448e+00 1.856403e+00 1.581186e+00 1.164165e+00 5.000000e-02
<GCONST> 8.651276e+01
<STATE> 4
<MEAN> 26
 -9.248845e+00 -8.382851e+00 -3.504448e+00 -7.111903e+00 -8.492533e+00 -3.925158e+00 -4.399738e+00 8.742375e-01 -1.272995e+00 -1.361601e+00 -3.405758e+00 -8.287594e-01 5.474696e-01 2.849101e+00 -7.477748e-01 5.843958e-01 -3.486105e-01 -1.760469e+00 1.733151e-01 -1.638311e+00 3.524936e-01 -4.813343e-01 1.899946e-01 1.159402e-02 -4.556798e-01 5.658111e-02
<VARIANCE> 26
 7.311055e+01 4.038865e+01 6.939027e+01 3.565494e+01 5.885289e+01 5.172638e+01 5.343815e+01 3.468029e+01 3.416447e+01 2.578706e+01 2.357206e+01 1.675996e+01 5.000000e-02 4.726794e+00 3.766590e+00 4.796646e+00 4.502771e+00 4.552521e+00 5.291044e+00 5.034452e+00 2.803046e+00 3.135996e+00 2.443065e+00 2.473187e+00 2.111622e+00 5.000000e-02
<GCONST> 1.013732e+02
<TRANSP> 5
 0.000000e+00 1.000000e+00 0.000000e+00 0.000000e+00 0.000000e+00
 0.000000e+00 5.315811e-01 4.684189e-01 0.000000e+00 0.000000e+00
 0.000000e+00 0.000000e+00 7.372659e-01 2.627342e-01 0.000000e+00
 0.000000e+00 0.000000e+00 0.000000e+00 6.488661e-01 3.511339e-01
 0.000000e+00 0.000000e+00 0.000000e+00 0.000000e+00 0.000000e+00
<ENDHMM>
