~o
<STREAMINFO> 1 26
<VECSIZE> 26<NULLD><MFCC_E_D><DIAGC>
~h "L"
<BEGINHMM>
<NUMSTATES> 5
<STATE> 2
<MEAN> 26
 1.981928e+00 -1.977913e+00 -7.621839e+00 -1.385180e+01 -1.195655e+01 8.702163e-01 -8.771127e+00 -2.782651e+00 -4.542860e+00 -6.403918e-01 -2.144211e+00 -1.131852e+00 7.019421e-01 5.946945e-01 -1.325085e-01 -1.012239e-01 -6.999967e-01 -2.453636e-01 1.955658e-01 -6.655291e-01 3.249805e-01 -1.955970e-01 -2.518206e-01 2.362674e-01 1.033523e-01 1.907251e-02
<VARIANCE> 26
 1.291573e+01 4.451278e+01 4.557961e+01 7.377150e+01 4.266246e+01 6.362500e+01 3.814089e+01 3.811494e+01 4.568746e+01 4.476885e+01 3.173994e+01 1.585178e+01 5.000000e-02 1.880516e+00 2.807222e+00 3.556777e+00 2.683348e+00 4.275257e+00 4.740206e+00 2.892754e+00 3.718690e+00 2.476745e+00 2.908331e+00 3.248662e+00 9.032306e-01 5.000000e-02
<GCONST> 9.765557e+01
<STATE> 3
<MEAN> 26
 2.836066e+00 -9.933961e+00 -7.693183e+00 -7.716929e+00 -1.367353e+01 -4.473716e+00 -1.131292e+01 4.709828e+00 -1.292462e+00 -1.188581e+00 -9.693263e-01 -1.697490e+00 7.848001e-01 -3.677280e-01 -1.951619e-01 2.103998e-01 1.675578e-01 -1.854369e-01 2.027333e-01 6.463686e-01 -2.924687e-01 -1.671488e-01 2.681948e-01 2.536379e-02 -2.699816e-01 -2.057859e-04
<VARIANCE> 26
 9.260213e+00 4.124257e+01 9.072870e+01 5.755190e+01 3.089678e+01 7.680717e+01 3.179098e+01 6.330910e+01 4.321217e+01 2.583143e+01 1.732708e+01 1.370694e+01 5.000000e-02 3.948512e-01 2.405407e+00 2.273453e+00 2.188571e+00 3.378713e+00 2.866213e+00 2.390115e+00 1.924115e+00 2.174466e+00 1.376371e+00 1.930489e+00 1.570220e+00 5.000000e-02
<GCONST> 9.172068e+01
<STATE> 4
<MEAN> 26
 -1.889243e+00 -5.153383e+00 -3.652735e+00 -8.912835e+00 -1.075353e+01 -3.212687e+00 -8.676356e+00 -1.960806e+00 -3.932082e+00 1.554288e+00 -2.653319e+00 -1.228704e+00 6.942991e-01 -1.842435e+00 7.016414e-02 9.921234e-01 1.032991e+00 3.966389e-01 -8.892723e-01 8.672434e-01 -6.118712e-02 1.450727e-01 1.211212e-01 -2.805563e-01 2.700900e-01 -2.774239e-02
<VARIANCE> 26
 3.113787e+01 5.116039e+01 1.044566e+02 6.245446e+01 7.244096e+01 8.830157e+01 5.124491e+01 6.439023e+01 5.776460e+01 2.077024e+01 3.370564e+01 2.286947e+01 5.000000e-02 4.800706e+00 5.068809e+00 2.364125e+00 4.344175e+00 7.399194e+00 6.559058e+00 5.895877e+00 4.420486e+00 4.168330e+00 2.314401e+00 2.875470e+00 2.285843e+00 5.000000e-02
<GCONST> 1.053659e+02
<TRANSP> 5
 0.000000e+00 1.000000e+00 0.000000e+00 0.000000e+00 0.000000e+00
 0.000000e+00 5.912480e-01 4.087520e-01 0.000000e+00 0.000000e+00
 0.000000e+00 0.000000e+00 5.591210e-01 4.408790e-01 0.000000e+00
 0.000000e+00 0.000000e+00 0.000000e+00 5.381792e-01 4.618208e-01
 0.000000e+00 0.000000e+00 0.000000e+00 0.000000e+00 0.000000e+00
<ENDHMM>
