~o
<STREAMINFO> 1 26
<VECSIZE> 26<NULLD><MFCC_E_D><DIAGC>
~h "N"
<BEGINHMM>
<NUMSTATES> 5
<STATE> 2
<MEAN> 26
 -3.088738e+00 -5.734123e+00 3.179391e+00 -8.017722e-01 -1.160259e+01 1.172668e+00 -9.816544e+00 -6.362777e+00 -4.872082e+00 -2.287097e-01 -5.822287e+00 4.574595e-02 4.697349e-01 -3.142902e-02 6.253681e-01 1.463823e-01 1.088676e+00 1.105212e-02 7.628196e-01 -1.306522e-01 -2.303026e+00 -1.239486e+00 3.961703e-01 2.415681e-01 9.042213e-01 -2.073424e-02
<VARIANCE> 26
 3.385746e+00 1.537008e+01 1.417230e+01 2.526451e+01 2.809103e+01 1.867367e+01 2.616950e+01 5.276100e+01 2.813749e+01 2.770400e+01 1.355366e+01 1.753888e+01 5.000000e-02 1.740523e+00 1.774503e+00 1.939849e+00 2.641152e+00 3.282805e+00 2.098293e+00 3.798924e+00 3.577661e+00 4.305963e+00 2.721454e+00 2.824493e+00 1.954616e+00 5.000000e-02
<GCONST> 8.871919e+01
<STATE> 3
<MEAN> 26
 -3.971991e+00 -2.767149e+00 2.281905e+00 -1.283628e+00 -1.197812e+01 1.384126e+00 -7.957679e+00 -8.464441e+00 -5.114527e+00 -1.442456e+00 -7.015546e+00 3.984128e+00 4.300611e-01 -3.742099e-01 3.867420e-01 -1.194586e+00 -1.002740e+00 6.527911e-01 -6.865704e-01 7.909372e-01 1.339959e+00 1.292656e+00 -1.245503e+00 2.474540e-01 6.296888e-02 5.516185e-03
<VARIANCE> 26
 2.612341e+00 3.191424e+01 1.460878e+01 1.789074e+01 1.949824e+01 1.584026e+01 2.585476e+01 3.760631e+01 2.612564e+01 2.019101e+01 1.461574e+01 1.242150e+01 5.000000e-02 2.143421e+00 2.885587e+00 2.287528e+00 4.026500e+00 3.937842e+00 2.314634e+00 2.252983e+00 4.584809e+00 1.481346e+00 1.156661e+00 1.804039e+00 1.822103e+00 5.000000e-02
<GCONST> 8.618067e+01
<STATE> 4
<MEAN> 26
 -4.873196e+00 -4.969820e+00 -3.448638e+00 -6.508986e+00 -9.411840e+00 -8.987775e-01 -5.215935e+00 -2.059100e+00 -9.069490e-01 -3.953278e+00 -4.265939e+00 3.140101e-01 5.118523e-01 -5.430828e-01 -6.920818e-01 -2.616143e+00 -2.693802e+00 3.455335e-01 -1.545126e-01 6.309864e-01 1.675257e+00 2.329588e+00 -4.998218e-01 6.428275e-01 -1.160639e+00 4.900368e-02
<VARIANCE> 26
 4.937830e+01 3.330377e+01 4.927254e+01 4.999736e+01 3.093251e+01 2.505504e+01 2.537163e+01 4.262367e+01 2.205076e+01 2.461991e+01 1.973519e+01 8.357224e+00 5.000000e-02 7.417696e+00 2.558423e+00 4.106178e+00 2.046287e+00 5.521375e+00 4.486714e+00 2.410750e+00 5.211607e+00 3.379395e+00 1.099383e+00 3.002153e+00 1.986549e+00 5.000000e-02
<GCONST> 9.595973e+01
<TRANSP> 5
 0.000000e+00 1.000000e+00 0.000000e+00 0.000000e+00 0.000000e+00
 0.000000e+00 6.925192e-01 3.074808e-01 0.000000e+00 0.000000e+00
 0.000000e+00 0.000000e+00 5.146194e-01 4.853806e-01 0.000000e+00
 0.000000e+00 0.000000e+00 0.000000e+00 4.074183e-01 5.925817e-01
 0.000000e+00 0.000000e+00 0.000000e+00 0.000000e+00 0.000000e+00
<ENDHMM>
