~o
<STREAMINFO> 1 26
<VECSIZE> 26<NULLD><MFCC_E_D><DIAGC>
~h "S"
<BEGINHMM>
<NUMSTATES> 5
<STATE> 2
<MEAN> 26
 -1.315615e+01 -6.934200e+00 -9.495243e+00 -9.694211e+00 -1.910252e+00 -1.724752e-01 -3.775252e+00 1.922320e+00 2.772930e+00 -1.178199e-01 -6.290540e+00 -3.203665e+00 1.681404e-01 1.050099e-01 -1.162344e-01 -4.380582e-01 2.836913e-01 2.145934e-01 1.049139e+00 2.195037e-02 -1.432762e-01 -4.153621e-01 1.252736e-01 1.230205e-01 1.343929e-01 -3.529381e-02
<VARIANCE> 26
 2.862018e+01 3.228543e+01 1.914547e+01 3.225152e+01 2.336698e+01 3.972016e+01 2.819694e+01 2.340303e+01 1.327349e+01 1.256960e+01 2.677704e+01 5.855540e+01 5.000000e-02 3.512724e+00 2.048569e+00 1.401105e+00 2.293651e+00 1.679883e+00 3.165255e+00 2.260795e+00 3.184448e+00 9.130102e-01 1.472678e+00 2.697095e+00 3.156683e+00 5.000000e-02
<GCONST> 9.007118e+01
<STATE> 3
<MEAN> 26
 -1.655403e+01 -1.907824e+00 -7.337448e+00 -5.579760e+00 -2.785027e+00 1.440958e-02 -7.630900e-01 1.485948e+00 -1.328177e+00 -5.667813e-01 -1.802313e+00 -3.999911e-01 -6.582977e-02 1.045899e-01 2.663193e-01 1.754407e-01 1.027690e-01 -3.339671e-01 9.619145e-02 3.424041e-02 -8.668301e-02 -1.339373e-01 -1.113868e-01 4.126927e-02 -9.294648e-02 -3.674658e-03
<VARIANCE> 26
 8.036077e+00 5.678372e+00 1.115632e+01 1.902066e+01 1.666291e+01 1.278594e+01 1.306750e+01 1.807488e+01 1.204163e+01 1.448806e+01 1.781730e+01 1.155624e+01 5.000000e-02 4.879234e-01 5.393214e-01 9.112409e-01 1.410883e+00 1.199932e+00 1.121724e+00 1.291422e+00 1.957122e+00 1.359314e+00 1.442064e+00 1.823860e+00 1.401845e+00 5.000000e-02
<GCONST> 7.403914e+01
<STATE> 4
<MEAN> 26
 -1.228571e+01 -2.500622e+00 -2.698554e+00 -1.005773e+01 -8.760431e+00 1.208855e+00 -2.135782e+00 1.613118e+00 -3.870425e+00 -2.148685e+00 -2.383392e+00 -2.077893e+00 1.870949e-01 4.991501e-01 -5.392832e-01 5.350475e-01 -7.513050e-01 -8.264577e-02 5.021192e-01 -8.205010e-01 -1.212472e-02 -3.869880e-01 -5.259685e-01 -1.900150e-01 -2.367155e-01 7.392770e-02
<VARIANCE> 26
 4.307591e+01 2.505143e+01 5.715742e+01 2.595528e+01 4.177291e+01 3.644872e+01 2.871379e+01 3.818189e+01 3.951210e+01 1.981258e+01 1.379428e+01 2.141158e+01 7.337497e-02 5.335346e+00 2.571797e+00 4.169100e+00 2.568322e+00 2.993710e+00 1.862893e+00 2.250432e+00 3.340510e+00 2.426165e+00 1.833180e+00 1.486127e+00 2.043138e+00 5.000000e-02
<GCONST> 9.447080e+01
<TRANSP> 5
 0.000000e+00 1.000000e+00 0.000000e+00 0.000000e+00 0.000000e+00
 0.000000e+00 6.418209e-01 3.581791e-01 0.000000e+00 0.000000e+00
 0.000000e+00 0.000000e+00 8.881587e-01 1.118413e-01 0.000000e+00
 0.000000e+00 0.000000e+00 0.000000e+00 6.879276e-01 3.120724e-01
 0.000000e+00 0.000000e+00 0.000000e+00 0.000000e+00 0.000000e+00
<ENDHMM>
