~o
<STREAMINFO> 1 26
<VECSIZE> 26<NULLD><MFCC_E_D><DIAGC>
~h "V"
<BEGINHMM>
<NUMSTATES> 5
<STATE> 2
<MEAN> 26
 5.329554e-01 -7.964482e+00 -4.466826e+00 -1.294575e+01 -1.300782e+01 2.441789e+00 -1.186000e+01 -1.012159e+00 -3.499696e+00 6.779271e-01 -1.253554e+00 -3.382092e+00 7.951772e-01 4.965651e-01 -5.653505e-01 -3.868096e-02 -7.523521e-02 -4.095128e-01 3.124972e-01 -5.246208e-01 1.766701e-01 3.895804e-01 1.862851e-01 -1.631540e-01 -3.198450e-01 1.582663e-02
<VARIANCE> 26
 1.737181e+01 3.286159e+01 1.246977e+02 4.677836e+01 5.599957e+01 1.040993e+02 5.358315e+01 3.406065e+01 4.283620e+01 3.497385e+01 2.348839e+01 2.382677e+01 5.000000e-02 1.485186e+00 1.693019e+00 2.403799e+00 1.785202e+00 2.940963e+00 2.484496e+00 2.337903e+00 2.210305e+00 2.670824e+00 1.748486e+00 1.687061e+00 1.519842e+00 5.000000e-02
<GCONST> 9.512373e+01
<STATE> 3
<MEAN> 26
 1.461019e+00 -1.499442e+01 -6.538161e+00 -8.896242e+00 -1.462745e+01 1.859847e+00 -8.443666e+00 4.357445e+00 7.957172e-01 -7.628339e-01 -6.757395e+00 -6.788087e+00 8.450060e-01 -3.573908e-01 3.735583e-01 8.488284e-01 2.314034e-01 -1.844633e-01 -8.306212e-01 4.481244e-01 3.596176e-01 -2.521078e-01 8.813147e-03 -1.911900e-01 5.005014e-01 -1.547209e-02
<VARIANCE> 26
 1.157077e+01 3.503012e+01 7.185780e+01 1.817837e+01 3.836464e+01 5.880448e+01 3.136246e+01 3.460170e+01 3.857098e+01 2.011898e+01 2.722328e+01 2.368548e+01 5.000000e-02 6.669443e-01 2.024015e+00 2.899990e+00 1.732929e+00 2.402455e+00 2.798407e+00 2.225319e+00 2.536264e+00 1.851660e+00 1.644817e+00 1.943809e+00 2.004740e+00 5.000000e-02
<GCONST> 9.083146e+01
<STATE> 4
<MEAN> 26
 -5.361769e+00 -5.265331e+00 2.261390e+00 -7.960768e+00 -1.237743e+01 -4.637756e+00 -5.515623e+00 1.024419e+00 -3.349746e+00 -3.838415e-02 -3.950365e+00 -1.044231e+00 6.198097e-01 -2.244398e+00 1.826551e+00 -8.705698e-01 1.028036e+00 2.380996e+00 4.304200e-02 1.350403e+00 -1.194985e+00 3.042423e-01 2.238414e-02 2.260927e-01 2.694726e-01 -7.310538e-02
<VARIANCE> 26
 3.743449e+01 3.719979e+01 6.078722e+01 3.609441e+01 6.791416e+01 5.088659e+01 4.725658e+01 4.080116e+01 4.701750e+01 3.637164e+01 2.649553e+01 1.812503e+01 5.000000e-02 4.883972e+00 3.214688e+00 5.281005e+00 3.827325e+00 5.593214e+00 4.397522e+00 5.022197e+00 3.855524e+00 6.054973e+00 3.257720e+00 2.471996e+00 1.742482e+00 5.000000e-02
<GCONST> 1.024247e+02
<TRANSP> 5
 0.000000e+00 1.000000e+00 0.000000e+00 0.000000e+00 0.000000e+00
 0.000000e+00 7.321168e-01 2.678832e-01 0.000000e+00 0.000000e+00
 0.000000e+00 0.000000e+00 7.185493e-01 2.814507e-01 0.000000e+00
 0.000000e+00 0.000000e+00 0.000000e+00 6.191579e-01 3.808421e-01
 0.000000e+00 0.000000e+00 0.000000e+00 0.000000e+00 0.000000e+00
<ENDHMM>
